digraph Tree {
node [shape=box, style="filled", color="black", fontname="helvetica"] ;
edge [fontname="helvetica"] ;
0 [label="sensor4 <= 5.002\ngini = 0.8\nsamples = 45\nvalue = [9, 9, 9, 9, 9]\nclass = 0", fillcolor="#ffffff"] ;
1 [label="gini = 0.0\nsamples = 9\nvalue = [0, 9, 0, 0, 0]\nclass = 1", fillcolor="#7be539"] ;
0 -> 1 [labeldistance=2.5, labelangle=45, headlabel="True"] ;
2 [label="sensor4 <= 5.005\ngini = 0.75\nsamples = 36\nvalue = [9, 0, 9, 9, 9]\nclass = 0", fillcolor="#ffffff"] ;
0 -> 2 [labeldistance=2.5, labelangle=-45, headlabel="False"] ;
3 [label="sensor2 <= -0.003\ngini = 0.42\nsamples = 10\nvalue = [0, 0, 7, 3, 0]\nclass = 2", fillcolor="#8ef0de"] ;
2 -> 3 ;
4 [label="gini = 0.0\nsamples = 4\nvalue = [0, 0, 4, 0, 0]\nclass = 2", fillcolor="#39e5c5"] ;
3 -> 4 ;
5 [label="sensor3 <= 0.013\ngini = 0.5\nsamples = 6\nvalue = [0, 0, 3, 3, 0]\nclass = 2", fillcolor="#ffffff"] ;
3 -> 5 ;
6 [label="sensor3 <= -0.019\ngini = 0.375\nsamples = 4\nvalue = [0, 0, 3, 1, 0]\nclass = 2", fillcolor="#7beed8"] ;
5 -> 6 ;
7 [label="gini = 0.0\nsamples = 1\nvalue = [0, 0, 0, 1, 0]\nclass = 3", fillcolor="#3c39e5"] ;
6 -> 7 ;
8 [label="gini = 0.0\nsamples = 3\nvalue = [0, 0, 3, 0, 0]\nclass = 2", fillcolor="#39e5c5"] ;
6 -> 8 ;
9 [label="gini = 0.0\nsamples = 2\nvalue = [0, 0, 0, 2, 0]\nclass = 3", fillcolor="#3c39e5"] ;
5 -> 9 ;
10 [label="sensor4 <= 5.005\ngini = 0.701\nsamples = 26\nvalue = [9, 0, 2, 6, 9]\nclass = 0", fillcolor="#ffffff"] ;
2 -> 10 ;
11 [label="sensor4 <= 5.005\ngini = 0.5\nsamples = 18\nvalue = [9, 0, 0, 0, 9]\nclass = 0", fillcolor="#ffffff"] ;
10 -> 11 ;
12 [label="sensor2 <= 0.006\ngini = 0.375\nsamples = 8\nvalue = [2, 0, 0, 0, 6]\nclass = 4", fillcolor="#ee7bd5"] ;
11 -> 12 ;
13 [label="gini = 0.0\nsamples = 4\nvalue = [0, 0, 0, 0, 4]\nclass = 4", fillcolor="#e539c0"] ;
12 -> 13 ;
14 [label="sensor2 <= 0.013\ngini = 0.5\nsamples = 4\nvalue = [2, 0, 0, 0, 2]\nclass = 0", fillcolor="#ffffff"] ;
12 -> 14 ;
15 [label="gini = 0.0\nsamples = 1\nvalue = [1, 0, 0, 0, 0]\nclass = 0", fillcolor="#e58139"] ;
14 -> 15 ;
16 [label="sensor3 <= 0.015\ngini = 0.444\nsamples = 3\nvalue = [1, 0, 0, 0, 2]\nclass = 4", fillcolor="#f29ce0"] ;
14 -> 16 ;
17 [label="gini = 0.0\nsamples = 2\nvalue = [0, 0, 0, 0, 2]\nclass = 4", fillcolor="#e539c0"] ;
16 -> 17 ;
18 [label="gini = 0.0\nsamples = 1\nvalue = [1, 0, 0, 0, 0]\nclass = 0", fillcolor="#e58139"] ;
16 -> 18 ;
19 [label="sensor1 <= 0.034\ngini = 0.42\nsamples = 10\nvalue = [7, 0, 0, 0, 3]\nclass = 0", fillcolor="#f0b78e"] ;
11 -> 19 ;
20 [label="sensor2 <= 0.004\ngini = 0.245\nsamples = 7\nvalue = [6, 0, 0, 0, 1]\nclass = 0", fillcolor="#e9965a"] ;
19 -> 20 ;
21 [label="gini = 0.0\nsamples = 5\nvalue = [5, 0, 0, 0, 0]\nclass = 0", fillcolor="#e58139"] ;
20 -> 21 ;
22 [label="sensor2 <= 0.008\ngini = 0.5\nsamples = 2\nvalue = [1, 0, 0, 0, 1]\nclass = 0", fillcolor="#ffffff"] ;
20 -> 22 ;
23 [label="gini = 0.0\nsamples = 1\nvalue = [0, 0, 0, 0, 1]\nclass = 4", fillcolor="#e539c0"] ;
22 -> 23 ;
24 [label="gini = 0.0\nsamples = 1\nvalue = [1, 0, 0, 0, 0]\nclass = 0", fillcolor="#e58139"] ;
22 -> 24 ;
25 [label="sensor3 <= -0.022\ngini = 0.444\nsamples = 3\nvalue = [1, 0, 0, 0, 2]\nclass = 4", fillcolor="#f29ce0"] ;
19 -> 25 ;
26 [label="gini = 0.0\nsamples = 1\nvalue = [1, 0, 0, 0, 0]\nclass = 0", fillcolor="#e58139"] ;
25 -> 26 ;
27 [label="gini = 0.0\nsamples = 2\nvalue = [0, 0, 0, 0, 2]\nclass = 4", fillcolor="#e539c0"] ;
25 -> 27 ;
28 [label="sensor2 <= 0.014\ngini = 0.375\nsamples = 8\nvalue = [0, 0, 2, 6, 0]\nclass = 3", fillcolor="#7d7bee"] ;
10 -> 28 ;
29 [label="gini = 0.0\nsamples = 5\nvalue = [0, 0, 0, 5, 0]\nclass = 3", fillcolor="#3c39e5"] ;
28 -> 29 ;
30 [label="sensor4 <= 5.007\ngini = 0.444\nsamples = 3\nvalue = [0, 0, 2, 1, 0]\nclass = 2", fillcolor="#9cf2e2"] ;
28 -> 30 ;
31 [label="gini = 0.0\nsamples = 2\nvalue = [0, 0, 2, 0, 0]\nclass = 2", fillcolor="#39e5c5"] ;
30 -> 31 ;
32 [label="gini = 0.0\nsamples = 1\nvalue = [0, 0, 0, 1, 0]\nclass = 3", fillcolor="#3c39e5"] ;
30 -> 32 ;
}